//Numpy array shape [9, 31]
//Min -0.726562500000
//Max 0.570312500000
//Number of zeros 149

#ifndef W5_H_
#define W5_H_

#ifndef __SYNTHESIS__
weight5_t w5[279];
#else
weight5_t w5[279] = {0.0000000, -0.1953125, 0.0000000, 0.0000000, 0.0468750, 0.0859375, -0.0234375, 0.0000000, -0.0546875, -0.1796875, 0.0000000, 0.0000000, 0.0390625, 0.0000000, 0.0625000, 0.0000000, 0.0000000, 0.0000000, 0.0000000, 0.0000000, 0.0000000, 0.0468750, -0.0156250, -0.1875000, 0.0390625, -0.0078125, 0.0234375, 0.2500000, 0.0000000, -0.0078125, 0.0000000, 0.0000000, 0.0859375, 0.0468750, -0.4531250, 0.0000000, 0.0625000, 0.0078125, 0.0000000, -0.0312500, 0.0000000, -0.0781250, 0.0000000, 0.0000000, -0.2031250, -0.0546875, 0.0000000, 0.0000000, 0.0000000, -0.1562500, 0.0859375, 0.1875000, 0.0000000, -0.0312500, 0.2578125, 0.0078125, 0.0000000, -0.1015625, 0.0000000, 0.1718750, 0.0000000, 0.0000000, 0.0000000, 0.0000000, 0.0000000, 0.0000000, 0.0000000, -0.0078125, 0.0000000, 0.0000000, 0.1875000, 0.0000000, 0.0156250, 0.0000000, 0.0000000, 0.0000000, 0.0000000, 0.4531250, 0.0000000, 0.0000000, 0.0078125, 0.0234375, 0.0000000, 0.0000000, 0.0000000, 0.0000000, -0.3828125, 0.0000000, 0.0156250, 0.0078125, -0.3671875, 0.0000000, 0.0859375, 0.0234375, 0.1718750, 0.0312500, 0.0000000, -0.0234375, -0.0078125, 0.0000000, 0.1250000, 0.2890625, 0.0468750, 0.0000000, 0.0000000, 0.0000000, 0.2187500, -0.2031250, -0.0859375, 0.0390625, -0.0156250, 0.0000000, 0.0000000, 0.0000000, 0.1562500, -0.0625000, -0.0937500, -0.2578125, -0.0468750, 0.0000000, 0.0703125, 0.0000000, 0.0000000, 0.0000000, 0.0000000, 0.0000000, 0.0000000, 0.0000000, 0.0000000, -0.4140625, 0.0000000, 0.0078125, -0.1328125, 0.0000000, 0.0000000, 0.2578125, 0.0000000, 0.0000000, 0.0312500, -0.2890625, -0.1796875, 0.0234375, 0.0078125, 0.2109375, -0.0546875, -0.3281250, 0.0000000, 0.0000000, 0.0000000, 0.0000000, 0.0000000, 0.0000000, -0.0078125, 0.0000000, 0.0000000, 0.0546875, 0.0312500, 0.0000000, 0.0000000, 0.0000000, -0.0078125, -0.0546875, -0.0078125, 0.1640625, 0.0000000, -0.1718750, 0.0000000, -0.0078125, 0.0000000, 0.0000000, 0.0000000, 0.0000000, 0.0000000, 0.0000000, 0.0000000, 0.0000000, 0.0000000, 0.0234375, 0.1875000, 0.0000000, -0.0546875, 0.0000000, 0.0000000, 0.0000000, 0.0000000, 0.0000000, -0.2187500, 0.0000000, 0.0000000, 0.0156250, -0.1171875, 0.0000000, 0.1328125, 0.0000000, 0.0000000, 0.0000000, 0.0000000, 0.0000000, 0.0000000, 0.0156250, 0.0390625, 0.0000000, 0.0859375, 0.0000000, 0.0000000, 0.0000000, 0.0000000, -0.1250000, 0.0000000, 0.0000000, 0.2578125, 0.0000000, 0.0000000, 0.0000000, -0.0156250, 0.0000000, 0.0937500, 0.0000000, 0.0078125, 0.0000000, -0.0078125, 0.2500000, 0.0000000, 0.0000000, 0.3593750, 0.0000000, 0.0000000, 0.0000000, 0.0000000, -0.1953125, 0.0000000, 0.1953125, 0.0000000, 0.0000000, 0.0000000, 0.0000000, 0.0000000, -0.1015625, 0.1562500, 0.0000000, 0.0000000, 0.1015625, 0.0000000, -0.0234375, 0.0000000, 0.0781250, 0.0468750, 0.4453125, -0.0546875, 0.0546875, -0.0546875, 0.0078125, -0.7265625, 0.0000000, 0.2343750, 0.0000000, 0.0625000, 0.0000000, 0.0625000, -0.0625000, 0.0000000, 0.5703125, 0.0000000, -0.0625000, 0.0000000, -0.1640625, 0.0390625, 0.0000000, -0.3203125, 0.0000000, 0.0781250, 0.0546875, 0.3828125, 0.0859375, 0.0000000, -0.0625000, 0.0000000, 0.0000000, 0.0000000};
#endif

#endif
